Language model created by QuickLM on Sun Jan 29 03:18:55 EST 2023
Copyright (c) 1996-2010 Carnegie Mellon University and Alexander I. Rudnicky

The model is in standard ARPA format, designed by Doug Paul while he was at MITRE.

The code that was used to produce this language model is available in Open Source.
Please visit http://www.speech.cs.cmu.edu/tools/ for more information

The (fixed) discount mass is 0.5. The backoffs are computed using the ratio method.
This model based on a corpus of 3 sentences and 6 words

\data\
ngram 1=6
ngram 2=7
ngram 3=6

\1-grams:
-1.3802 5 -0.2430
-0.9031 </s> -0.3010
-0.9031 <s> -0.2430
-1.0792 CHROME -0.2430
-1.3802 CLOSE -0.2632
-1.0792 OPEN -0.2430

\2-grams:
-0.3010 5 </s> -0.3010
-0.7782 <s> CLOSE 0.0000
-0.4771 <s> OPEN 0.0000
-0.3010 CHROME </s> -0.3010
-0.3010 CLOSE CHROME 0.0000
-0.6021 OPEN 5 0.0000
-0.6021 OPEN CHROME 0.0000

\3-grams:
-0.3010 <s> CLOSE CHROME
-0.6021 <s> OPEN 5
-0.6021 <s> OPEN CHROME
-0.3010 CLOSE CHROME </s>
-0.3010 OPEN 5 </s>
-0.3010 OPEN CHROME </s>

\end\