Language model created by QuickLM on Wed Mar 29 02:41:02 EDT 2023
Copyright (c) 1996-2010 Carnegie Mellon University and Alexander I. Rudnicky

The model is in standard ARPA format, designed by Doug Paul while he was at MITRE.

The code that was used to produce this language model is available in Open Source.
Please visit http://www.speech.cs.cmu.edu/tools/ for more information

The (fixed) discount mass is 0.5. The backoffs are computed using the ratio method.
This model based on a corpus of 32 sentences and 54 words

\data\
ngram 1=54
ngram 2=86
ngram 3=66

\1-grams:
-2.4314 5 -0.2462
-0.9262 </s> -0.3010
-0.9262 <s> -0.2444
-2.4314 ARE -0.2929
-2.4314 BAIDU -0.2462
-2.4314 BORN -0.2462
-1.9542 CAN -0.2929
-2.1303 CHROME -0.2462
-1.9542 CLOSE -0.2913
-2.4314 COFFEE -0.2462
-2.4314 COMPOSE -0.2994
-2.4314 CONVERTOR -0.2462
-2.4314 DATE -0.2462
-2.4314 DOWN -0.2462
-2.4314 EMAIL -0.2994
-2.1303 EMAILS -0.2462
-2.4314 FACEBOOK -0.2462
-2.4314 FOR -0.2994
-2.4314 GOOGLE -0.2462
-2.4314 HEY -0.2978
-2.1303 HOW -0.2444
-2.4314 INSTAGRAM -0.2462
-2.4314 IS -0.2994
-2.4314 IT -0.2462
-2.4314 JAVA -0.2994
-2.4314 LOCATION -0.2462
-2.4314 ME -0.2462
-2.4314 MUSIC -0.2462
-1.9542 MY -0.2962
-2.4314 ONE -0.2994
-1.9542 OPEN -0.2945
-2.4314 OR -0.2994
-2.1303 ORLANDO -0.2462
-2.4314 PLAY -0.2994
-2.4314 PREFER -0.2994
-2.1303 SHOW -0.2962
-2.4314 SHUT -0.2994
-2.4314 SPEECH -0.2994
-2.4314 TEA -0.2994
-2.4314 TEACHER -0.2462
-2.4314 TEXT -0.2994
-2.4314 TO -0.2994
-2.4314 TODAY -0.2994
-2.4314 TWITTER -0.2462
-1.9542 WHAT -0.2426
-2.4314 WHATSAPP -0.2462
-2.4314 WHEN -0.2462
-2.4314 WHO -0.2462
-2.4314 WHY -0.2462
-2.4314 WIKIPEDIA -0.2462
-2.4314 WOULD -0.2929
-2.4314 YAHOO -0.2462
-1.7324 YOU -0.2389
-2.4314 YOUTUBE -0.2462

\2-grams:
-0.3010 5 </s> -0.3010
-1.8062 <s> BAIDU 0.0000
-1.8062 <s> BORN 0.0000
-1.3291 <s> CAN 0.0000
-1.3291 <s> CLOSE 0.0000
-1.8062 <s> FACEBOOK 0.0000
-1.8062 <s> GOOGLE 0.0000
-1.8062 <s> HEY 0.0000
-1.5051 <s> HOW 0.0000
-1.8062 <s> INSTAGRAM 0.0000
-1.8062 <s> JAVA 0.0000
-1.8062 <s> LOCATION 0.0000
-1.3291 <s> OPEN 0.0000
-1.8062 <s> ORLANDO 0.0000
-1.8062 <s> PLAY 0.0000
-1.8062 <s> SHUT 0.0000
-1.8062 <s> TWITTER 0.0000
-1.3291 <s> WHAT 0.0000
-1.8062 <s> WHEN 0.0000
-1.8062 <s> WHO 0.0000
-1.8062 <s> WHY 0.0000
-1.8062 <s> WIKIPEDIA 0.0000
-1.8062 <s> YAHOO 0.0000
-1.8062 <s> YOUTUBE 0.0000
-0.3010 ARE YOU -0.2553
-0.3010 BAIDU </s> -0.3010
-0.3010 BORN </s> -0.3010
-0.3010 CAN YOU -0.1461
-0.3010 CHROME </s> -0.3010
-0.7782 CLOSE CHROME 0.0000
-0.7782 CLOSE IT 0.0000
-0.7782 CLOSE MY -0.1249
-0.3010 COFFEE </s> -0.3010
-0.3010 COMPOSE ONE 0.0000
-0.3010 CONVERTOR </s> -0.3010
-0.3010 DATE </s> -0.3010
-0.3010 DOWN </s> -0.3010
-0.3010 EMAIL FOR 0.0000
-0.3010 EMAILS </s> -0.3010
-0.3010 FACEBOOK </s> -0.3010
-0.3010 FOR ME 0.0000
-0.3010 GOOGLE </s> -0.3010
-0.3010 HEY ORLANDO 0.0000
-0.6021 HOW </s> -0.3010
-0.6021 HOW ARE 0.0000
-0.3010 INSTAGRAM </s> -0.3010
-0.3010 IS TODAY 0.0000
-0.3010 IT </s> -0.3010
-0.3010 JAVA TEACHER 0.0000
-0.3010 LOCATION </s> -0.3010
-0.3010 ME </s> -0.3010
-0.3010 MUSIC </s> -0.3010
-0.4771 MY EMAILS 0.0000
-0.7782 MY WHATSAPP 0.0000
-0.3010 ONE EMAIL 0.0000
-0.7782 OPEN 5 0.0000
-0.7782 OPEN CHROME 0.0000
-0.7782 OPEN TEXT 0.0000
-0.3010 OR COFFEE 0.0000
-0.3010 ORLANDO </s> -0.3010
-0.3010 PLAY MUSIC 0.0000
-0.3010 PREFER TEA 0.0000
-0.3010 SHOW MY 0.0000
-0.3010 SHUT DOWN 0.0000
-0.3010 SPEECH CONVERTOR 0.0000
-0.3010 TEA OR 0.0000
-0.3010 TEACHER </s> -0.3010
-0.3010 TEXT TO 0.0000
-0.3010 TO SPEECH 0.0000
-0.3010 TODAY DATE 0.0000
-0.3010 TWITTER </s> -0.3010
-0.7782 WHAT </s> -0.3010
-0.7782 WHAT IS 0.0000
-0.7782 WHAT WOULD 0.0000
-0.3010 WHATSAPP </s> -0.3010
-0.3010 WHEN </s> -0.3010
-0.3010 WHO </s> -0.3010
-0.3010 WHY </s> -0.3010
-0.3010 WIKIPEDIA </s> -0.3010
-0.3010 WOULD YOU -0.2553
-0.3010 YAHOO </s> -0.3010
-1.0000 YOU </s> -0.3010
-1.0000 YOU COMPOSE 0.0000
-1.0000 YOU PREFER 0.0000
-0.6990 YOU SHOW 0.0000
-0.3010 YOUTUBE </s> -0.3010

\3-grams:
-0.3010 <s> BAIDU </s>
-0.3010 <s> BORN </s>
-0.3010 <s> CAN YOU
-0.7782 <s> CLOSE CHROME
-0.7782 <s> CLOSE IT
-0.7782 <s> CLOSE MY
-0.3010 <s> FACEBOOK </s>
-0.3010 <s> GOOGLE </s>
-0.3010 <s> HEY ORLANDO
-0.6021 <s> HOW </s>
-0.6021 <s> HOW ARE
-0.3010 <s> INSTAGRAM </s>
-0.3010 <s> JAVA TEACHER
-0.3010 <s> LOCATION </s>
-0.7782 <s> OPEN 5
-0.7782 <s> OPEN CHROME
-0.7782 <s> OPEN TEXT
-0.3010 <s> ORLANDO </s>
-0.3010 <s> PLAY MUSIC
-0.3010 <s> SHUT DOWN
-0.3010 <s> TWITTER </s>
-0.7782 <s> WHAT </s>
-0.7782 <s> WHAT IS
-0.7782 <s> WHAT WOULD
-0.3010 <s> WHEN </s>
-0.3010 <s> WHO </s>
-0.3010 <s> WHY </s>
-0.3010 <s> WIKIPEDIA </s>
-0.3010 <s> YAHOO </s>
-0.3010 <s> YOUTUBE </s>
-0.3010 ARE YOU </s>
-0.7782 CAN YOU COMPOSE
-0.4771 CAN YOU SHOW
-0.3010 CLOSE CHROME </s>
-0.3010 CLOSE IT </s>
-0.3010 CLOSE MY EMAILS
-0.3010 COMPOSE ONE EMAIL
-0.3010 EMAIL FOR ME
-0.3010 FOR ME </s>
-0.3010 HEY ORLANDO </s>
-0.3010 HOW ARE YOU
-0.3010 IS TODAY DATE
-0.3010 JAVA TEACHER </s>
-0.3010 MY EMAILS </s>
-0.3010 MY WHATSAPP </s>
-0.3010 ONE EMAIL FOR
-0.3010 OPEN 5 </s>
-0.3010 OPEN CHROME </s>
-0.3010 OPEN TEXT TO
-0.3010 OR COFFEE </s>
-0.3010 PLAY MUSIC </s>
-0.3010 PREFER TEA OR
-0.6021 SHOW MY EMAILS
-0.6021 SHOW MY WHATSAPP
-0.3010 SHUT DOWN </s>
-0.3010 SPEECH CONVERTOR </s>
-0.3010 TEA OR COFFEE
-0.3010 TEXT TO SPEECH
-0.3010 TO SPEECH CONVERTOR
-0.3010 TODAY DATE </s>
-0.3010 WHAT IS TODAY
-0.3010 WHAT WOULD YOU
-0.3010 WOULD YOU PREFER
-0.3010 YOU COMPOSE ONE
-0.3010 YOU PREFER TEA
-0.3010 YOU SHOW MY

\end\