Language model created by QuickLM on Mon Feb  6 11:15:47 EST 2023
Copyright (c) 1996-2010 Carnegie Mellon University and Alexander I. Rudnicky

The model is in standard ARPA format, designed by Doug Paul while he was at MITRE.

The code that was used to produce this language model is available in Open Source.
Please visit http://www.speech.cs.cmu.edu/tools/ for more information

The (fixed) discount mass is 0.5. The backoffs are computed using the ratio method.
This model based on a corpus of 13 sentences and 33 words

\data\
ngram 1=33
ngram 2=46
ngram 3=41

\1-grams:
-2.1584 5 -0.2599
-1.0444 </s> -0.3010
-1.0444 <s> -0.2599
-2.1584 ARE -0.2857
-1.6812 CAN -0.2857
-1.8573 CHROME -0.2599
-1.6812 CLOSE -0.2825
-2.1584 COFFEE -0.2599
-2.1584 COMPOSE -0.2980
-2.1584 DATE -0.2599
-2.1584 DOWN -0.2599
-2.1584 EMAIL -0.2980
-1.8573 EMAILS -0.2599
-2.1584 FOR -0.2980
-2.1584 HOW -0.2980
-2.1584 IS -0.2980
-2.1584 IT -0.2599
-2.1584 ME -0.2599
-2.1584 MUSIC -0.2599
-1.6812 MY -0.2919
-2.1584 ONE -0.2980
-1.8573 OPEN -0.2919
-2.1584 OR -0.2980
-2.1584 PLAY -0.2980
-2.1584 PREFER -0.2980
-1.8573 SHOW -0.2919
-2.1584 SHUT -0.2980
-2.1584 TEA -0.2980
-2.1584 TODAY -0.2980
-1.8573 WHAT -0.2950
-2.1584 WHATSAPP -0.2599
-2.1584 WOULD -0.2857
-1.4594 YOU -0.2465

\2-grams:
-0.3010 5 </s> -0.3010
-0.9379 <s> CAN 0.0000
-0.9379 <s> CLOSE 0.0000
-1.4150 <s> HOW 0.0000
-1.1139 <s> OPEN 0.0000
-1.4150 <s> PLAY 0.0000
-1.4150 <s> SHUT 0.0000
-1.1139 <s> WHAT 0.0000
-0.3010 ARE YOU -0.2553
-0.3010 CAN YOU -0.1461
-0.3010 CHROME </s> -0.3010
-0.7782 CLOSE CHROME 0.0000
-0.7782 CLOSE IT 0.0000
-0.7782 CLOSE MY -0.1249
-0.3010 COFFEE </s> -0.3010
-0.3010 COMPOSE ONE 0.0000
-0.3010 DATE </s> -0.3010
-0.3010 DOWN </s> -0.3010
-0.3010 EMAIL FOR 0.0000
-0.3010 EMAILS </s> -0.3010
-0.3010 FOR ME 0.0000
-0.3010 HOW ARE 0.0000
-0.3010 IS TODAY 0.0000
-0.3010 IT </s> -0.3010
-0.3010 ME </s> -0.3010
-0.3010 MUSIC </s> -0.3010
-0.4771 MY EMAILS 0.0000
-0.7782 MY WHATSAPP 0.0000
-0.3010 ONE EMAIL 0.0000
-0.6021 OPEN 5 0.0000
-0.6021 OPEN CHROME 0.0000
-0.3010 OR COFFEE 0.0000
-0.3010 PLAY MUSIC 0.0000
-0.3010 PREFER TEA 0.0000
-0.3010 SHOW MY 0.0000
-0.3010 SHUT DOWN 0.0000
-0.3010 TEA OR 0.0000
-0.3010 TODAY DATE 0.0000
-0.6021 WHAT IS 0.0000
-0.6021 WHAT WOULD 0.0000
-0.3010 WHATSAPP </s> -0.3010
-0.3010 WOULD YOU -0.2553
-1.0000 YOU </s> -0.3010
-1.0000 YOU COMPOSE 0.0000
-1.0000 YOU PREFER 0.0000
-0.6990 YOU SHOW 0.0000

\3-grams:
-0.3010 <s> CAN YOU
-0.7782 <s> CLOSE CHROME
-0.7782 <s> CLOSE IT
-0.7782 <s> CLOSE MY
-0.3010 <s> HOW ARE
-0.6021 <s> OPEN 5
-0.6021 <s> OPEN CHROME
-0.3010 <s> PLAY MUSIC
-0.3010 <s> SHUT DOWN
-0.6021 <s> WHAT IS
-0.6021 <s> WHAT WOULD
-0.3010 ARE YOU </s>
-0.7782 CAN YOU COMPOSE
-0.4771 CAN YOU SHOW
-0.3010 CLOSE CHROME </s>
-0.3010 CLOSE IT </s>
-0.3010 CLOSE MY EMAILS
-0.3010 COMPOSE ONE EMAIL
-0.3010 EMAIL FOR ME
-0.3010 FOR ME </s>
-0.3010 HOW ARE YOU
-0.3010 IS TODAY DATE
-0.3010 MY EMAILS </s>
-0.3010 MY WHATSAPP </s>
-0.3010 ONE EMAIL FOR
-0.3010 OPEN 5 </s>
-0.3010 OPEN CHROME </s>
-0.3010 OR COFFEE </s>
-0.3010 PLAY MUSIC </s>
-0.3010 PREFER TEA OR
-0.6021 SHOW MY EMAILS
-0.6021 SHOW MY WHATSAPP
-0.3010 SHUT DOWN </s>
-0.3010 TEA OR COFFEE
-0.3010 TODAY DATE </s>
-0.3010 WHAT IS TODAY
-0.3010 WHAT WOULD YOU
-0.3010 WOULD YOU PREFER
-0.3010 YOU COMPOSE ONE
-0.3010 YOU PREFER TEA
-0.3010 YOU SHOW MY

\end\